svm_type c_svc
kernel_type rbf
gamma 0.030303030303030304
nr_class 7
total_sv 112
rho 6.0108153332405108 5.2283721838092445 1.6283584590009363 -1.0581414131779436 -0.44601012162527204 -0.90778155324248944 8.9334555612305753 -1.5675765001820323 -1.5442128072967682 -0.5407844006988517 0.076049676529634111 -4.3340403375166705 -1.2669498292271282 -1.0259950938399294 -1.3954307750629924 -0.61111626778608497 0.023254183888980803 -0.52657734095862452 2.1496179425731268 1.3765478688202928 0.33367356247650604
label 25 30 40 50 20 18 16
nr_sv 30 27 18 13 7 12 5
SV
0 0 0 0 20.202558314992412 0 2:1 3:0.4 5:1 8:1 15:0.6 16:1 17:0.333333 18:1 19:0.75 20:1 21:0.75 22:0.75 23:0.5 24:0.666667 25:1 26:0.75 27:1 28:0.75 29:0.5 30:0.5 31:0.5 32:0.666667 33:0.666667 
0 0 0 13.849461217739439 0 0 3:0.4 4:0.2 5:1 10:1 15:0.6 16:0.25 17:0.666667 18:1 19:0.75 20:0.666667 21:0.75 22:0.5 23:0.75 24:0.666667 25:0.5 26:0.25 27:0.25 28:0.75 29:1 30:0.5 32:0.666667 33:1 
169.48719545588028 60.593353945701118 4.2762469632552538 0 0 0 3:0.6 4:1 5:1 10:1 15:0.4 16:0.5 17:0.333333 18:1 19:1 20:1 21:0.75 22:0.5 23:1 24:0.666667 25:0.5 26:0.5 27:0.5 28:0.5 29:1 30:1 31:1 32:1 33:0.666667 
0 3.3955216612618471 47.454061251490714 0 0 0 3:0.4 4:0.2 5:1 12:1 15:0.8 17:1 18:1 19:0.5 20:1 21:0.5 22:0.5 23:1 24:0.666667 25:1 26:0.75 27:0.5 28:0.5 29:0.5 30:0.25 31:0.75 32:1 33:1 
147.65451888057831 93.438806238458952 97.257277972508533 8.2371218045770274 0 0 3:0.4 4:0.2 5:1 9:1 15:0.4 16:0.5 17:0.666667 18:0.333333 19:0.75 20:1 21:0.75 22:0.75 23:0.75 24:0.666667 25:0.5 26:0.5 27:0.5 28:0.5 29:0.75 30:0.75 31:0.5 32:0.666667 33:1 
82.762296849484457 0 7.2557165786995599 0 0 0 2:1 3:0.4 5:1 12:1 15:1 16:0.75 17:0.666667 18:0.666667 19:0.75 20:1 21:0.75 22:0.5 23:0.25 24:0.333333 25:0.25 26:0.5 27:0.5 28:0.5 29:0.5 30:0.5 31:0.5 32:0.666667 33:0.666667 
131.45727823015093 63.575756973623008 23.782633651549631 2.7676789243727011 0 10.607372286789023 3:0.4 4:0.2 5:1 9:1 15:0.6 16:1 17:1 18:0.333333 19:0.75 20:1 21:0.5 22:0.5 23:0.75 24:0.333333 25:0.5 26:0.5 27:0.5 28:0.5 29:0.5 30:0.5 31:0.25 32:0.333333 33:0.666667 
23.34671158075933 0 18.982120294756662 17.778920620233617 11.900612359829505 19.516073252407715 3:0.6 6:1 9:1 16:0.75 17:0.666667 18:0.666667 19:1 20:0.666667 21:0.25 22:0.25 23:0.75 24:0.666667 26:0.25 27:0.25 28:0.5 29:0.5 30:0.5 31:0.25 32:0.666667 33:0.666667 
6.45014010929913 64.758270052027555 1.0790011677193452 20.318132287804218 11.544546186398321 33.987958339895307 3:0.2 4:0.2 6:1 12:1 15:0.4 17:0.333333 18:0.333333 19:1 20:0.333333 21:0.25 22:0.5 23:0.5 24:0.666667 25:0.25 26:0.25 27:0.25 28:0.25 29:0.25 30:0.25 31:0.75 32:0.333333 33:0.666667 
4.1739375175107316 17.726884674392014 0 0 0 0 2:1 3:0.8 4:0.2 6:1 13:1 15:1 16:0.5 17:1 18:0.666667 19:0.75 20:1 21:1 22:0.75 23:1 24:0.666667 25:0.5 26:0.5 27:0.5 28:1 29:1 30:1 32:0.666667 33:1 
362.15414671878693 86.605600120044173 41.321285646573408 2.6971839329874516 0 0 3:0.4 4:1 5:1 8:1 15:0.8 16:0.5 17:0.666667 18:0.666667 19:0.5 20:0.666667 21:0.75 22:0.75 23:0.75 24:0.666667 25:0.25 26:0.75 27:0.5 28:0.75 29:0.75 30:0.75 31:0.5 32:0.333333 33:0.666667 
0 37.862011586925597 0 0 0 0 2:1 3:1 4:0.2 6:1 9:1 15:0.4 16:0.5 17:0.333333 18:0.666667 19:0.5 20:0.666667 21:0.75 22:0.5 23:0.75 24:0.666667 25:0.5 26:0.75 27:0.5 28:0.75 29:0.75 30:0.75 31:0.75 32:0.666667 33:1 
22.192708944894711 26.029005330835094 2.5618152227303068 0 0 5.9771542522175256 3:0.6 4:0.2 5:1 9:1 15:0.8 16:0.5 17:0.666667 18:0.333333 19:0.75 21:0.5 22:0.5 23:0.25 24:0.666667 25:0.75 26:0.25 27:0.5 28:0.5 29:0.75 30:0.5 31:0.5 33:0.333333 
0 0 0 23.582359340985604 16.476058938330191 26.359532562334053 3:0.4 5:1 14:1 15:0.4 16:0.75 17:1 18:0.666667 19:1 20:0.666667 21:0.75 22:0.75 23:1 24:1 25:0.75 26:0.75 27:0.5 28:1 29:0.75 30:0.75 31:0.75 32:0.333333 33:0.666667 
20.798302364667602 0 0 0 0 0 3:0.2 4:0.2 5:1 11:1 15:0.6 16:0.75 17:0.666667 18:1 19:1 20:1 21:1 22:0.75 23:1 24:0.666667 25:0.75 26:0.75 27:0.75 28:0.75 29:1 30:1 31:0.75 32:1 33:1 
64.612161491435373 42.561085983146384 0 28.314676046194055 38.646999670726494 32.093080767259359 4:1 6:1 12:1 15:0.8 16:0.75 17:1 18:1 19:0.75 20:1 21:1 22:0.75 23:0.75 24:0.666667 25:0.75 26:0.75 27:0.5 28:0.75 29:0.75 30:0.75 31:0.5 32:0.666667 33:1 
119.49513085026125 25.823738413328186 60.759296529683212 0 0 0 3:0.8 4:1 6:1 11:1 15:1 16:0.5 17:0.666667 18:0.666667 19:0.75 20:1 21:1 22:1 23:1 24:1 25:0.75 26:0.75 27:0.75 28:0.75 29:1 30:1 31:1 32:0.666667 33:1 
194.49975396962444 0 0 0 2.5107767190989358 0.13829788438385424 3:0.8 6:1 11:1 15:0.6 16:0.5 17:1 18:1 19:0.75 20:1 21:1 22:1 23:1 24:1 25:1 26:1 27:1 28:0.75 29:1 30:1 31:0.75 32:0.666667 33:0.666667 
70.882043826056318 0 0 0 0 3.486019521079363 3:0.6 5:1 10:1 15:1 16:0.25 17:1 18:0.666667 19:0.5 20:1 21:0.5 22:0.75 23:1 24:1 25:1 26:0.75 27:0.75 28:0.75 29:1 30:1 31:0.75 32:0.666667 33:1 
0 4.8729549463674964 0 0 29.067368580107996 25.774817874254687 2:1 4:0.2 5:1 9:1 15:1 16:0.25 17:1 18:0.333333 19:0.75 20:1 21:0.75 22:0.75 23:1 24:0.333333 25:1 26:0.75 27:0.75 28:0.75 29:0.5 30:0.5 31:0.75 32:0.666667 33:1 
6.5995406737787778 0 29.670861431572355 0 0 0 3:1 4:0.2 5:1 8:1 15:0.8 16:0.5 17:0.666667 18:1 19:0.75 20:1 21:1 22:0.75 23:1 24:1 25:1 26:0.75 27:1 28:0.75 29:1 30:1 31:0.75 32:1 33:1 
0 0 0 57.256374503120789 46.902890824097881 9.6204526713451646 2:1 3:0.2 6:1 8:1 15:0.8 16:0.25 17:1 18:0.666667 19:0.75 20:0.666667 21:0.75 22:0.75 23:0.75 24:0.666667 25:0.5 26:0.75 27:0.75 28:0.75 29:1 30:0.75 31:0.75 32:0.666667 33:0.666667 
94.710232467392871 63.070703727551447 0 1.9223158937944347 0 6.4328283993432125 3:0.4 4:0.2 5:1 12:1 15:0.8 16:0.5 17:0.666667 18:0.666667 19:0.5 20:0.333333 21:0.5 22:0.75 23:1 24:1 25:0.75 26:1 27:0.75 28:0.75 29:0.75 30:1 31:0.5 32:0.333333 33:0.666667 
0 0 0 6.2285142563710592 0 0 3:0.4 4:0.2 5:1 8:1 15:0.2 16:0.75 17:0.666667 18:0.666667 19:1 20:0.666667 21:0.75 22:0.75 23:0.75 24:0.666667 25:0.75 26:0.75 27:0.75 28:0.75 29:0.75 30:0.75 31:1 32:0.666667 33:0.666667 
0 0 13.237514631687779 0 0 0 2:1 3:1 4:0.2 5:1 8:1 15:1 16:1 17:0.666667 18:1 19:1 20:1 21:0.75 22:0.75 23:1 24:1 25:0.75 26:1 27:0.75 28:1 29:0.75 30:0.75 31:1 32:0.666667 33:1 
76.033593597872695 0 0 0 0 0 3:0.8 4:1 5:1 8:1 15:0.6 16:0.5 17:0.666667 18:0.666667 19:0.75 20:0.666667 21:0.75 22:0.5 23:0.75 24:0.666667 25:0.75 26:0.75 27:0.5 28:0.75 29:0.75 30:0.75 31:0.5 33:0.666667 
90.712336552168196 0.96038131107198388 0 0 0 0 2:1 3:0.6 4:0.2 5:1 10:1 15:0.6 16:0.75 17:1 18:1 19:1 20:0.666667 21:0.75 22:0.75 23:0.25 24:0.666667 25:0.5 26:0.75 27:0.75 28:0.75 29:0.25 30:0.25 31:0.75 32:0.666667 33:1 
40.502705543343438 33.773407634552662 18.15693997038872 4.6927117843320207 0 0 3:0.6 4:0.2 5:1 10:1 15:0.8 16:0.5 17:0.666667 18:0.666667 19:0.75 20:0.666667 21:0.5 22:1 23:1 24:0.666667 25:0.75 26:0.75 27:0.5 28:0.75 29:0.5 30:0.5 31:0.25 32:0.666667 33:1 
182.06560150133549 10.182146442329856 47.941964563396432 0 26.393989490786097 15.961265615931426 3:0.6 4:1 6:1 14:1 15:0.8 16:0.5 17:0.666667 18:1 19:1 20:1 21:0.75 22:0.75 23:1 24:1 25:0.75 26:1 27:0.75 28:0.75 29:0.75 30:0.75 32:0.666667 33:1 
0 0 3.4386806845517519 21.653849182334262 19.379778828847499 2.030984634513695 4:0.2 5:1 11:1 15:0.6 16:0.75 17:0.666667 18:1 19:1 20:0.666667 21:0.75 22:1 23:1 24:1 25:0.5 26:0.75 27:0.5 28:0.75 29:1 30:0.75 32:0.666667 33:1 
-0 0 57.803353767364953 0 0 4.1106344342736323 3:0.6 4:0.2 5:1 9:1 15:1 16:0.75 17:0.666667 18:1 19:0.5 20:0.666667 21:0.75 22:0.75 23:0.75 24:1 25:0.25 26:0.5 27:1 28:1 29:1 30:1 31:0.75 32:1 33:1 
-0 23.559153998646011 0 32.546195426252261 20.725812393147692 17.873963389070592 3:0.2 5:1 9:1 15:0.6 16:0.75 17:0.666667 18:0.666667 19:0.75 20:0.333333 21:0.25 22:0.75 23:1 24:0.666667 25:0.25 26:0.25 27:0.75 28:0.75 29:0.5 30:0.25 31:0.25 32:0.333333 33:0.666667 
-160.31507513788591 0 59.322329291936988 0 0 0 3:0.8 4:1 5:1 11:1 15:0.8 16:1 17:0.333333 18:0.666667 19:0.5 20:0.666667 21:0.75 22:0.75 23:1 24:0.666667 25:0.75 26:0.5 27:0.5 28:0.75 29:0.75 30:0.75 31:1 32:1 33:1 
-78.053443253242449 0 0 7.7493195596038511 0 0 2:1 3:0.4 4:0.2 5:1 12:1 15:0.8 16:0.25 17:0.666667 18:1 19:0.75 20:0.666667 21:0.75 22:1 24:0.666667 26:0.5 27:0.5 28:0.5 29:0.5 30:0.5 31:0.5 32:0.333333 33:1 
-25.762259588606025 0 11.372666665592893 0 3.5650700188830342 0 2:1 3:0.4 5:1 12:1 15:1 16:1 17:0.666667 18:0.666667 19:0.75 20:1 21:1 22:0.75 23:0.5 24:0.666667 26:0.5 27:0.5 28:0.5 29:0.5 30:0.5 31:0.25 32:0.333333 33:1 
-51.155105935922741 14.366539671727278 0 0 0 0 3:0.8 4:0.2 5:1 9:1 15:1 16:0.25 17:1 18:1 19:1 20:0.666667 21:0.25 22:0.75 23:1 24:1 25:0.25 26:0.75 27:0.75 28:0.5 29:1 30:1 31:0.75 32:0.333333 33:1 
-20.268008141880461 5.11919611172838 0 0 0 0 2:1 3:0.4 4:1 5:1 10:1 15:1 16:0.25 17:0.333333 18:0.333333 19:0.5 20:1 21:0.75 22:0.25 23:0.75 24:0.333333 26:0.25 27:0.5 28:0.5 29:0.5 30:0.5 31:0.25 32:0.666667 33:1 
-5.702344282023379 0 31.549835414213671 0 0 0 3:1 4:0.2 5:1 9:1 15:0.8 16:0.75 17:1 18:0.333333 20:1 21:1 22:0.75 23:0.75 24:0.666667 25:0.5 26:0.5 27:0.5 28:0.5 29:0.75 30:0.75 31:0.25 32:0.333333 33:0.666667 
-92.362810586831884 155.04939780379391 185.4568524949938 0 0 7.6160626888737069 3:0.8 5:1 9:1 15:0.6 16:0.75 17:0.333333 18:0.666667 19:0.75 20:0.666667 21:0.5 22:0.75 23:0.75 24:0.666667 25:0.5 26:0.75 27:0.75 28:0.75 29:0.5 30:0.5 31:0.75 32:0.666667 33:0.666667 
-68.106942074122742 0 0 0 6.825954879739963 0 3:0.4 4:1 6:1 8:1 15:1 16:0.5 17:0.666667 18:1 19:0.25 20:1 21:1 22:0.5 23:0.75 24:1 25:0.25 26:1 27:0.5 28:0.25 29:0.75 30:0.25 31:0.25 33:0.666667 
-3.7500125237455091 105.08103201254191 0 21.305118833782629 15.160722035115867 31.194807484467361 3:0.2 4:1 6:1 9:1 15:0.6 16:0.25 17:0.666667 18:0.666667 19:0.25 20:0.666667 21:0.5 22:0.75 23:0.75 24:1 25:0.5 26:0.75 27:0.5 28:0.75 29:0.75 30:0.5 31:0.25 33:0.666667 
-85.082426493114596 8.12461846171764 29.604114235828419 19.156792148556331 0 0 3:0.8 4:0.2 6:1 10:1 15:0.8 17:1 18:1 19:1 20:1 21:0.75 22:1 23:1 24:1 26:1 27:0.25 28:1 29:1 30:1 31:0.5 32:1 33:1 
-50.354295129077876 25.505661674552769 3.5272914576628143 0 5.0515786260384248 4.4179093936743694 3:0.6 6:1 11:1 15:1 16:1 17:1 18:1 19:1 20:1 21:0.75 22:1 23:1 24:1 25:0.75 26:1 27:1 28:1 29:0.75 30:0.75 31:1 32:1 33:1 
-31.652545742995688 0.33951781216758814 0 30.808942353847858 24.286135824657705 11.362840410304909 2:1 3:0.6 6:1 12:1 15:0.6 16:0.75 17:1 18:1 19:1 20:1 21:0.75 22:1 23:0.75 24:0.666667 25:0.5 26:0.75 27:0.75 28:0.5 29:0.5 30:0.5 31:0.75 32:0.666667 33:0.666667 
-29.909893792427148 46.481937025022113 0 16.290665165808505 0 2.5201067412077243 3:0.6 4:0.2 6:1 10:1 15:0.6 16:0.75 17:0.666667 18:0.666667 19:1 20:0.666667 21:0.5 22:0.75 23:0.75 24:1 25:0.75 26:0.75 27:0.75 28:0.75 29:0.75 30:0.75 31:0.75 32:0.666667 33:0.666667 
-171.39365198926819 238.43893406307427 109.86106565281615 0 0 0 3:0.6 4:1 5:1 9:1 15:0.6 16:0.5 17:0.666667 18:0.666667 19:0.75 20:1 21:0.75 22:0.5 23:0.75 24:0.666667 25:0.5 26:0.5 27:0.5 28:0.5 29:0.75 30:0.5 31:0.5 32:0.666667 33:0.666667 
-219.01589531829836 119.07193662483533 0 34.87261924714344 14.941341657390838 22.848744809500499 4:0.2 5:1 10:1 15:0.6 16:0.5 17:0.666667 18:0.666667 19:1 20:1 21:0.75 22:0.75 23:0.75 24:0.333333 25:0.75 26:0.5 27:0.75 28:0.75 29:1 30:1 31:0.75 32:0.333333 33:0.666667 
-24.599827591579182 99.09952444213242 129.83734206813105 0 0 0 3:1 4:1 5:1 12:1 15:0.6 16:0.75 17:0.666667 18:1 19:1 20:1 21:1 22:0.75 23:1 24:1 25:1 26:0.75 27:0.75 28:0.75 29:1 30:1 31:1 32:1 33:1 
-30.018632588732448 0 0 0 0 0 3:1 6:1 10:1 15:0.6 16:0.75 17:1 18:1 19:1 20:1 21:1 22:1 23:1 24:1 25:0.75 26:0.75 27:0.5 28:0.5 29:0.75 30:0.75 31:0.5 32:0.666667 33:1 
-100.64879237843283 0 76.800829643684708 0 9.3737970565898685 18.491152996508362 3:0.2 4:0.2 5:1 12:1 15:0.8 16:0.75 17:1 18:1 19:1 20:1 21:1 22:0.75 23:1 24:1 25:0.5 26:0.5 27:0.5 28:0.75 29:0.75 30:0.75 31:0.75 32:0.666667 33:0.666667 
-0 0 0 7.9418526414847168 0 0 3:0.6 4:1 6:1 8:1 15:1 16:1 17:1 18:0.666667 19:0.5 20:1 21:0.75 22:0.75 23:1 24:1 26:1 27:1 28:0.25 29:1 30:1 31:0.5 32:0.666667 33:1 
-0 20.844201846225346 8.2158519895788089 0 0 0 3:0.6 4:1 6:1 8:1 15:1 16:1 17:0.666667 18:0.666667 19:0.5 20:1 21:0.75 22:0.75 23:1 24:1 25:0.25 26:1 27:1 28:0.5 29:1 30:0.75 31:0.5 32:0.666667 33:1 
-363.11668066025646 76.611556829472093 93.906707450810728 0 0 0 3:0.6 4:1 5:1 8:1 15:0.6 16:0.25 17:0.666667 18:0.333333 19:0.5 20:0.666667 21:0.75 22:0.5 23:0.75 24:0.666667 25:0.5 26:0.75 27:0.75 28:0.5 29:0.5 30:0.75 31:0.25 32:0.333333 33:0.666667 
-120.56377066483351 0 0 5.439596003694172 0 0 3:0.6 6:1 11:1 15:0.4 16:1 17:1 18:1 19:0.75 20:1 21:0.75 22:1 23:1 24:1 25:0.75 26:1 27:0.75 28:1 29:1 30:1 31:0.25 32:0.333333 33:0.666667 
-0 17.436788687027271 13.330985914755097 0 0 0 3:1 4:1 7:1 9:1 15:0.6 16:0.75 17:0.666667 18:0.666667 19:0.75 20:0.666667 21:0.25 22:0.75 23:0.75 24:0.666667 25:0.75 26:0.75 27:0.75 28:0.75 29:0.75 30:0.75 31:0.75 32:0.666667 33:1 
-175.70418490977966 14.828566989900423 178.6998992039606 0 18.352453832469344 10.135208652967126 3:0.6 4:1 6:1 14:1 15:0.8 16:0.75 17:1 18:1 19:0.75 20:1 21:0.75 22:1 23:1 24:1 25:1 26:1 27:1 28:1 29:1 30:1 31:0.5 32:0.666667 33:1 
-3.0537383422243338 109.79930170799052 0 0 0 0 3:0.4 4:1 5:1 9:1 15:0.8 17:1 18:1 19:0.25 20:0.666667 21:0.5 22:0.5 23:0.5 24:0.333333 26:0.75 27:0.5 28:0.75 29:0.75 30:0.75 31:1 32:0.333333 33:1 
-37.165646799549449 -70.405654131380871 54.675449735106454 0 0 0 3:0.6 4:1 5:1 9:1 15:0.8 16:0.5 17:0.333333 18:0.666667 19:0.75 20:0.666667 21:0.25 22:0.5 23:0.75 24:1 25:0.5 26:0.75 27:0.75 28:0.75 29:1 30:1 31:1 32:1 33:1 
-1.8848900277868648 -12.70700787458868 61.229700468070398 0 0 0 3:0.8 4:1 6:1 9:1 15:1 17:0.666667 18:0.666667 19:0.75 20:1 21:1 22:1 23:1 24:1 25:0.75 26:0.75 27:0.5 28:1 29:1 30:1 31:0.75 32:0.666667 33:1 
-51.737974452026734 -0 37.203532741942034 2.1973860014934585 8.2577769208820069 5.5478585186202531 3:0.4 4:0.2 5:1 12:1 15:0.4 16:0.5 19:0.75 20:0.666667 21:0.75 22:0.5 23:0.5 24:0.333333 26:0.25 27:0.5 28:0.5 29:0.5 30:0.5 31:0.5 32:0.333333 33:0.666667 
-2.3752566080433648 -39.647507379596824 3.3625577361454724 0 0.65484520279957548 0.70736002070480619 3:0.6 6:1 8:1 15:0.4 17:0.333333 18:1 20:0.666667 21:0.5 23:0.5 24:1 26:1 27:0.5 28:0.5 31:0.5 32:0.333333 33:0.666667 
-90.244020236964246 -85.244309595906444 15.579075134641394 33.489755176374615 11.902921627698966 15.739495927386141 3:0.4 4:0.2 6:1 10:1 15:0.6 16:0.5 17:0.333333 18:0.333333 19:0.75 20:0.666667 21:0.75 22:1 23:1 24:0.666667 25:0.5 26:0.5 27:0.5 28:0.75 29:0.75 30:0.75 31:0.5 32:0.666667 33:1 
-41.619993792235626 -0 39.570750264326179 0 0 0 3:0.8 4:1 5:1 12:1 15:0.6 16:0.5 17:0.666667 19:0.5 20:0.333333 21:0.5 22:0.25 23:0.75 24:0.666667 25:0.5 26:0.75 27:0.25 28:0.25 29:0.5 30:0.5 31:0.5 32:0.666667 33:0.333333 
-60.192896720771294 -168.18839974858733 0 0 0 13.035281271969618 3:0.4 4:1 5:1 9:1 15:0.8 16:0.25 17:0.666667 18:0.333333 19:0.5 20:0.666667 21:0.5 22:0.25 23:0.5 24:0.333333 25:0.25 26:0.25 28:0.25 29:0.5 30:0.25 31:0.5 33:0.333333 
-14.638307759458018 -74.003556872563379 5.8131062246327394 0 0 0 3:0.4 4:1 5:1 10:1 15:0.4 16:0.5 17:0.666667 18:0.333333 19:1 20:0.666667 21:0.75 22:0.5 23:1 24:0.666667 25:0.75 26:0.75 27:1 28:0.75 29:0.5 30:0.75 31:0.5 32:0.666667 33:0.666667 
-0 -89.669413808704363 5.2164397342059345 0 0 0 3:0.6 4:1 5:1 9:1 15:0.8 16:0.75 17:0.666667 18:0.666667 19:0.75 20:1 21:0.5 22:0.75 23:1 24:1 25:0.5 26:0.75 27:1 28:0.75 29:1 30:0.75 31:1 32:1 33:1 
-0 -0 30.696119074001313 0 0 0 3:0.8 4:1 5:1 9:1 15:0.8 16:0.75 17:1 18:1 19:1 20:1 21:0.75 22:1 23:1 24:1 25:0.75 26:1 27:1 28:0.75 29:1 30:1 31:1 32:1 33:1 
-26.527481592398608 -91.499673729958516 111.61317288098279 0 0 0 3:0.6 4:1 5:1 9:1 15:1 16:0.5 17:0.666667 18:0.666667 19:0.5 20:1 21:0.75 22:0.75 23:1 24:1 25:0.75 26:0.75 27:0.75 28:1 29:1 30:1 31:0.75 32:1 33:1 
-57.740328486020339 -186.4822414709289 5.4352578611110376 14.035794227472779 0.41881629782234514 1.4577196607630516 3:0.6 4:0.2 5:1 9:1 15:0.2 16:0.75 17:0.666667 18:1 19:1 20:1 21:0.75 22:0.75 23:0.75 24:0.333333 25:0.75 26:1 27:0.75 28:0.75 29:0.75 30:0.75 31:0.75 32:0.333333 33:0.666667 
-0 -43.202080412652819 21.308289695806266 0 4.5991944620485139 3.9245025057801457 3:0.6 4:1 6:1 9:1 15:0.8 16:0.75 17:1 18:1 19:0.75 20:0.666667 21:0.75 22:0.5 23:1 24:1 25:0.75 26:1 27:1 28:1 29:0.75 30:0.75 31:0.5 32:0.666667 33:1 
-8.9263424757884486 -44.950633603433701 0.041667543516878652 0 0 0 3:0.6 4:0.2 5:1 13:1 15:0.6 17:0.666667 18:1 19:0.75 20:0.666667 21:0.5 22:0.75 23:0.5 24:0.666667 25:0.5 26:0.5 27:0.75 28:0.75 29:1 30:0.75 31:1 32:1 33:1 
-82.226120093824079 -99.403747769081036 75.360369379958826 13.033457534677833 6.933918468688435 4.9266679042027208 3:0.4 4:1 5:1 12:1 15:0.8 16:0.75 17:1 18:0.666667 19:0.75 20:1 21:1 22:0.75 23:1 24:0.666667 25:0.75 26:0.75 27:0.75 28:0.75 29:0.75 30:0.75 31:0.25 33:1 
-68.67439733895479 -54.432732607823745 16.070660518696148 32.386936434827838 22.437579450790977 10.00227461105503 3:0.4 4:0.2 6:1 8:1 15:0.6 17:1 18:0.666667 19:0.5 20:0.333333 21:0.5 22:0.75 23:0.75 24:0.666667 26:0.5 27:0.5 28:0.5 29:1 30:0.5 31:0.75 32:0.666667 33:0.666667 
-56.077791666767283 -19.920906757348806 98.728483890242728 21.91770666962238 23.963488519213762 30.266703596767751 3:0.6 5:1 9:1 15:0.6 16:0.75 17:1 18:1 19:1 20:1 21:1 22:1 23:0.75 24:1 25:1 26:1 27:1 28:0.75 29:0.75 30:0.75 31:1 32:1 33:1 
-35.198180991028202 -0 9.2015932673719707 24.128307947063856 16.843234906377766 13.476873328695659 2:1 4:0.2 6:1 13:1 15:0.6 16:0.75 17:0.666667 18:1 19:0.5 20:1 22:0.75 23:1 24:1 25:0.25 26:1 27:0.5 28:1 29:0.5 30:0.5 32:0.333333 33:1 
-18.542719606389547 -77.310984326756596 -86.637373842274016 0 0 0 3:0.8 4:1 5:1 9:1 15:0.8 16:0.5 17:0.666667 18:0.666667 19:1 20:1 21:0.5 22:1 23:1 24:1 25:0.5 26:0.75 27:0.5 28:0.5 29:1 30:1 31:0.5 32:0.333333 33:1 
-9.4666907598924972 -82.218171475982601 -25.250030511359792 0 0 0 3:0.8 4:0.2 5:1 12:1 15:0.6 16:0.75 17:0.333333 18:0.333333 19:0.75 20:0.666667 21:0.75 22:0.5 23:0.5 24:0.666667 25:0.5 26:0.5 27:0.5 28:0.75 29:0.5 30:0.5 31:0.5 32:0.666667 33:1 
-5.3522637220957181 -0 -12.616147077376695 0 0 0 3:0.8 4:1 6:1 12:1 15:1 16:0.75 17:0.666667 18:0.666667 19:0.5 20:1 21:1 22:0.75 23:0.75 24:0.333333 25:0.25 27:0.25 28:0.75 29:0.75 30:0.75 31:0.5 32:0.666667 33:1 
-1.0457717751884776 -100.72091533619873 -64.476930095981373 0 0 0 3:0.8 4:1 5:1 12:1 15:0.8 16:0.5 17:0.666667 18:0.666667 19:0.25 20:1 21:0.75 22:0.75 23:1 24:1 25:0.5 26:0.75 27:0.75 28:1 29:1 30:1 31:0.5 32:0.666667 33:0.666667 
-47.204210062276935 -0 -13.660349317836809 0 2.4302773467316983 7.9612405019796055 3:0.4 4:0.2 5:1 12:1 15:0.8 16:0.75 17:0.666667 19:0.75 20:1 21:0.25 22:0.5 23:0.5 24:0.333333 25:0.5 26:0.25 27:0.25 28:0.5 29:0.5 30:0.5 31:0.5 32:0.666667 33:1 
-0 -44.609605561776817 -37.105157607335983 0 0 0 3:1 4:1 5:1 12:1 15:1 16:0.5 17:1 18:0.666667 19:0.5 20:1 21:0.75 22:0.75 23:0.5 24:0.333333 25:0.5 26:0.5 27:0.5 28:0.5 29:0.5 30:0.75 31:0.5 32:0.666667 33:1 
-61.821645881950246 -59.185364782557514 -0 1.5149558073814351 0 0 3:0.8 4:0.2 5:1 11:1 15:0.6 16:0.25 17:0.666667 18:0.666667 19:0.75 20:0.666667 21:0.5 22:1 23:0.75 24:0.666667 25:0.25 26:0.25 27:0.25 28:0.25 29:0.5 30:0.5 31:0.25 32:0.666667 33:1 
-45.319033963872563 -32.583406459501433 -106.06032326461975 7.6297713576592789 1.9357850540841623 6.6081654549756603 3:0.6 4:1 6:1 9:1 15:0.6 16:0.25 17:0.666667 18:0.666667 19:1 20:1 21:0.75 22:0.5 23:1 24:1 25:1 26:0.75 27:1 28:1 29:1 30:1 31:0.75 32:1 33:1 
-50.375889695715678 -106.99544069289979 -78.749661711977652 0 0 0 3:0.8 4:0.2 5:1 9:1 15:1 16:0.5 17:0.666667 18:0.666667 19:0.75 20:1 21:0.75 22:0.75 23:1 24:1 25:1 26:0.75 27:0.75 28:0.5 29:0.75 30:0.75 31:0.75 32:1 33:1 
-40.235563773815997 -187.79767557695959 -103.78250921709542 16.423562025333407 20.058743300392692 35.637692643544462 3:0.4 4:0.2 5:1 9:1 15:0.4 16:1 17:0.666667 18:0.666667 19:1 20:0.666667 21:0.75 22:0.75 23:0.75 24:1 25:0.75 26:0.75 27:0.75 28:0.75 29:0.75 30:1 31:0.75 32:1 33:0.666667 
-47.242582726061883 -193.67169559195455 -10.528339621132139 1.9612522465044691 10.001459596218455 1.9956121053749982 3:1 4:1 6:1 14:1 15:0.6 16:1 17:0.666667 18:1 19:0.75 20:1 21:0.75 22:0.75 23:1 24:0.666667 25:0.75 26:0.75 27:0.75 28:1 29:0.75 30:0.75 31:1 32:0.666667 33:0.666667 
-70.54265651260549 -102.96434579350401 -52.239403883768993 10.470304103735256 21.352672980806506 10.224841802857746 3:0.2 4:1 5:1 8:1 15:1 16:0.25 17:1 18:1 19:0.5 20:1 21:1 22:1 23:1 24:1 25:0.25 26:1 27:1 28:1 29:0.5 30:0.5 31:0.25 32:0.666667 33:1 
-20.026388080698602 -1.2315196532390855 -0 16.075376315149096 8.7049940187941512 5.5367570821342786 3:0.8 6:1 13:1 15:0.6 16:0.75 17:0.666667 18:0.666667 19:1 20:1 21:0.25 22:0.75 23:1 24:0.333333 25:0.5 26:0.25 27:0.25 28:0.5 29:0.5 30:0.5 31:0.5 32:0.666667 33:1 
-22.443320827417878 -57.822564052476096 -29.251173815727864 -8.4669490018613569 2.3401865229911665 23.338722591858506 3:0.4 5:1 10:1 15:0.6 16:0.25 17:1 18:0.666667 19:1 20:0.666667 21:0.25 22:0.75 23:1 24:1 26:0.75 27:0.5 28:0.5 29:1 30:1 31:0.5 32:0.333333 33:1 
-46.513876702878875 -35.222579402013515 -18.986252707420597 -0.30425486210417407 135.7798590231051 22.105331145149169 2:1 6:1 12:1 15:0.8 16:0.75 17:0.666667 18:1 19:0.75 20:0.666667 21:0.75 22:0.75 23:0.5 24:0.333333 25:0.25 26:0.5 27:0.5 28:0.5 29:0.5 30:0.5 31:0.25 32:0.333333 33:0.666667 
-7.2458503158824534 -6.9553176957537977 -4.1393196498429248 -0 0 0 2:1 6:1 10:1 15:0.8 16:1 17:1 18:0.666667 19:1 20:0.666667 21:0.5 22:1 23:0.75 24:0.666667 25:0.75 26:0.75 27:0.75 28:0.75 29:0.75 30:0.75 31:0.75 32:0.666667 33:1 
-32.034332383494316 -50.813252477057205 -35.009515750028825 -18.237732057534949 71.068776929744331 36.700675497576071 4:0.2 6:1 9:1 15:0.4 16:0.75 17:0.666667 18:0.666667 19:0.75 20:0.666667 21:0.75 22:1 23:0.75 24:0.666667 25:0.75 26:0.75 27:0.75 28:0.75 29:0.75 30:0.75 31:0.75 32:0.666667 33:0.666667 
-13.3659186675338 -4.9739077906644109 -19.410672759124854 -10.523010240829631 21.301331743721608 2.7359356592710227 4:0.2 6:1 13:1 15:0.6 16:0.75 17:1 18:1 19:0.75 20:1 21:0.75 22:1 23:1 24:1 25:1 26:1 27:0.75 28:0.75 29:1 30:1 31:0.5 32:0.666667 33:1 
-61.32135173094116 -8.8236290849734402 -21.462492103809058 -11.659776574056218 48.490127855088474 12.373100446204829 5:1 8:1 15:0.4 16:0.25 17:1 18:0.666667 19:1 20:0.666667 21:0.75 22:0.75 23:1 24:0.666667 25:0.25 26:0.5 27:0.25 28:0.75 29:1 30:0.75 31:0.75 32:0.666667 33:0.666667 
-26.374649166698209 -11.499850877235287 -12.929917205578656 -4.8834991193766077 32.102263264341879 36.00600236065101 4:1 6:1 14:1 15:0.6 16:0.5 17:0.666667 18:0.666667 19:0.5 20:0.333333 21:0.5 22:1 23:1 24:1 25:0.5 26:0.5 27:0.75 28:0.5 29:0.75 30:0.5 31:0.25 32:0.666667 33:0.666667 
-0 -4.9223366418606878 -4.5476656486367677 -4.8726281441327792 -26.829412438341461 0 6:1 9:1 15:1 16:0.75 17:1 18:0.666667 19:0.5 20:1 21:1 22:0.75 23:0.75 24:0.666667 25:0.25 26:0.5 27:0.5 28:0.5 29:0.75 30:0.75 31:0.25 32:0.666667 33:1 
-36.956001537897556 -29.910880892997984 -19.182102792620114 -0.30779998870481262 -50.917546858540646 54.117495402117548 6:1 12:1 15:0.6 16:0.25 17:0.666667 18:0.666667 19:0.5 20:0.666667 21:0.75 22:0.75 23:1 24:0.666667 25:0.25 26:0.5 27:0.5 28:0.5 29:0.5 30:0.5 31:0.25 32:0.333333 33:0.666667 
-11.707659374068301 -3.86457709608238 -6.2345210409424636 -3.8278361291024505 -3.0158570443488188 21.530085703255519 6:1 11:1 15:0.2 18:0.333333 19:0.75 20:0.666667 21:0.25 22:0.5 23:0.5 24:0.666667 25:0.25 26:0.25 27:0.25 28:0.5 31:0.25 
-7.6831827684198624 -0 -0 -0 -0 0 2:1 6:1 8:1 15:0.8 16:0.5 17:1 18:1 19:1 20:1 21:0.75 22:1 23:1 24:0.666667 25:0.75 26:1 27:1 28:1 29:0.75 30:0.5 31:0.5 32:0.666667 33:0.666667 
-20.769734160122901 -0 -0 -0 -0 0 2:1 6:1 8:1 15:0.8 16:0.75 17:1 18:1 19:1 20:1 21:1 22:1 23:1 24:0.666667 25:0.75 26:0.75 27:0.75 28:0.75 29:0.75 30:0.75 31:0.75 32:0.666667 33:1 
-0 -0 -5.7712688866709572 -0 -0 28.566546881155848 6:1 9:1 15:1 16:0.25 17:1 18:0.666667 19:0.5 20:1 21:0.75 22:0.75 23:1 24:0.666667 25:0.75 26:1 27:0.75 28:0.75 29:0.75 30:0.75 31:0.75 32:1 33:1 
-3.3618008790758309 -2.0689591871913322 -0 -0 -81.694620180538891 9.6724006982797359 2:1 6:1 12:1 15:0.6 16:0.5 17:0.666667 18:1 19:0.5 20:0.666667 21:0.75 22:1 23:0.75 25:0.25 26:0.5 27:0.25 28:0.5 29:0.25 30:0.5 31:0.25 32:0.333333 33:0.333333 
-15.43902443479919 -4.5791874821595941 -15.235606417360902 -0 -58.339130172138461 0 6:1 8:1 15:0.8 16:0.75 17:0.666667 18:1 19:1 20:0.666667 21:0.5 22:0.75 23:0.75 24:0.666667 25:0.5 26:1 27:0.5 28:0.75 29:0.75 30:0.75 31:0.75 32:0.666667 33:1 
-22.492885115398291 -10.891908233579603 -12.063202010012924 -23.065411723331767 -0 12.623445512957474 5:1 8:1 15:1 16:0.75 17:1 18:1 19:0.75 20:0.666667 21:1 22:1 23:1 24:0.666667 25:0.75 26:0.75 27:0.75 28:1 29:0.75 30:0.75 31:0.75 32:1 33:0.666667 
-50.726032514454346 -32.490682432711722 -20.70871807773808 -12.929712639913166 -50.545578201329377 44.82806811508901 2:1 5:1 9:1 15:0.8 16:0.75 17:0.666667 18:0.666667 19:1 20:1 21:0.75 22:1 23:0.75 24:0.666667 25:0.75 26:0.75 27:1 28:0.75 29:0.75 30:0.75 31:1 32:0.666667 33:0.666667 
-26.935296988936233 -19.97323974506374 -10.22210467099792 -15.472964716035907 -23.664806992147547 18.090813654319188 4:1 6:1 14:1 15:0.6 16:0.5 17:0.666667 18:1 19:0.75 20:1 21:0.75 22:0.75 23:1 24:1 25:0.75 26:0.75 27:1 28:0.75 29:0.75 30:0.75 32:0.666667 33:1 
-26.95396214004284 -9.5810946123856944 -2.046586311342208 -4.0075789558067871 -16.075593451607361 32.986333615860929 4:1 6:1 14:1 15:0.6 16:0.75 17:1 18:1 19:0.75 20:1 21:0.75 22:1 23:1 24:1 25:1 26:0.75 27:0.25 28:0.75 29:0.75 30:0.75 31:0.25 32:1 33:1 
-40.628565803705399 -13.880959190835437 -8.8387800862812913 -4.3228086199228279 -15.589391279734789 -18.55759235976344 6:1 12:1 15:0.6 16:0.5 17:0.333333 18:0.666667 19:1 20:0.333333 21:0.25 23:0.75 24:0.333333 25:0.25 26:0.25 28:0.5 29:0.5 30:0.75 31:0.5 33:0.666667 
-5.9806877649875414 -15.326376567068873 -12.48683220767529 -4.6136596556089273 -24.559259994635113 -27.139892132382215 6:1 10:1 15:0.6 16:0.5 17:0.333333 18:1 19:0.25 20:1 21:0.5 22:0.75 23:1 24:1 25:0.25 27:1 29:1 30:0.75 31:0.75 32:1 33:0.666667 
-22.669870284023048 -8.6445801119154702 -8.1388464184860894 -0 -9.5320297629045516 -46.11549084287536 2:1 6:1 12:1 15:1 16:0.25 17:1 18:1 19:0.25 20:1 21:0.5 22:0.75 23:1 24:0.333333 25:1 26:1 27:0.25 28:0.75 29:0.25 31:0.5 32:0.666667 33:0.666667 
-50.686069742715041 -29.071912993470175 -19.807351612372081 -11.511336857760885 -43.485861786223971 -59.95816567439406 3:0.2 4:1 6:1 14:1 15:0.6 17:0.666667 18:0.666667 19:0.75 20:0.666667 21:0.75 22:0.75 23:0.75 24:0.666667 25:0.5 26:0.75 27:0.5 28:0.5 29:0.5 30:0.75 31:0.25 32:0.333333 33:0.666667 
-72.020644466323361 -63.647602137558309 -49.81292702113042 -47.516504457574108 -40.093224877212172 -70.644048573620211 5:1 9:1 15:0.6 16:0.75 17:1 18:0.666667 19:0.75 20:1 21:0.75 22:0.75 23:0.75 24:1 25:0.75 26:0.75 27:0.75 28:1 29:0.75 30:0.75 31:0.75 32:0.666667 33:0.666667 
