svm_type c_svc
kernel_type rbf
gamma 0.030303030303030304
nr_class 2
total_sv 41
rho 0.43624164999673504
label 1 0
nr_sv 16 25
SV
39.489296618789894 2:0.264706 3:0.4 5:1 8:1 15:0.6 16:1 17:0.333333 18:1 19:0.75 20:1 21:0.75 22:0.75 23:0.5 24:0.666667 25:1 26:0.75 27:1 28:0.75 29:0.5 30:0.5 31:0.5 32:0.666667 33:0.666667 
21.444735879109807 2:0.411765 3:0.4 4:0.2 5:1 12:1 15:0.8 16:0.25 17:0.666667 18:1 19:0.75 20:0.666667 21:0.75 22:1 24:0.666667 26:0.5 27:0.5 28:0.5 29:0.5 30:0.5 31:0.5 32:0.333333 33:1 
21.379733130314811 2:0.411765 3:0.4 5:1 12:1 15:1 16:1 17:0.666667 18:0.666667 19:0.75 20:1 21:1 22:0.75 23:0.5 24:0.666667 26:0.5 27:0.5 28:0.5 29:0.5 30:0.5 31:0.25 32:0.333333 33:1 
98.12526153192411 2:0.411765 3:0.4 4:1 5:1 10:1 15:1 16:0.25 17:0.333333 18:0.333333 19:0.5 20:1 21:0.75 22:0.25 23:0.75 24:0.333333 26:0.25 27:0.5 28:0.5 29:0.5 30:0.5 31:0.25 32:0.666667 33:1 
3.0844267048189931 2:0.117647 6:1 12:1 15:0.8 16:0.75 17:0.666667 18:1 19:0.75 20:0.666667 21:0.75 22:0.75 23:0.5 24:0.333333 25:0.25 26:0.5 27:0.5 28:0.5 29:0.5 30:0.5 31:0.25 32:0.333333 33:0.666667 
282.17625805092695 2:0.264706 3:1 4:0.2 6:1 9:1 15:0.4 16:0.5 17:0.333333 18:0.666667 19:0.5 20:0.666667 21:0.75 22:0.5 23:0.75 24:0.666667 25:0.5 26:0.75 27:0.5 28:0.75 29:0.75 30:0.75 31:0.75 32:0.666667 33:1 
178.2629364813823 2:0.117647 6:1 10:1 15:0.8 16:1 17:1 18:0.666667 19:1 20:0.666667 21:0.5 22:1 23:0.75 24:0.666667 25:0.75 26:0.75 27:0.75 28:0.75 29:0.75 30:0.75 31:0.75 32:0.666667 33:1 
42.513896052718401 2:0.411765 3:0.6 6:1 12:1 15:0.6 16:0.75 17:1 18:1 19:1 20:1 21:0.75 22:1 23:0.75 24:0.666667 25:0.5 26:0.75 27:0.75 28:0.5 29:0.5 30:0.5 31:0.75 32:0.666667 33:0.666667 
70.723494154621548 2:0.0588235 6:1 8:1 15:0.8 16:0.75 17:1 18:1 19:1 20:1 21:1 22:1 23:1 24:0.666667 25:0.75 26:0.75 27:0.75 28:0.75 29:0.75 30:0.75 31:0.75 32:0.666667 33:1 
6.1427186388191446 6:1 12:1 15:1 16:0.25 17:1 18:1 19:0.25 20:1 21:0.5 22:0.75 23:1 24:0.333333 25:1 26:1 27:0.25 28:0.75 29:0.25 31:0.5 32:0.666667 33:0.666667 
84.352074174060661 2:0.264706 4:0.2 5:1 9:1 15:1 16:0.25 17:1 18:0.333333 19:0.75 20:1 21:0.75 22:0.75 23:1 24:0.333333 25:1 26:0.75 27:0.75 28:0.75 29:0.5 30:0.5 31:0.75 32:0.666667 33:1 
272.80810029773136 2:0.264706 3:0.2 6:1 8:1 15:0.8 16:0.25 17:1 18:0.666667 19:0.75 20:0.666667 21:0.75 22:0.75 23:0.75 24:0.666667 25:0.5 26:0.75 27:0.75 28:0.75 29:1 30:0.75 31:0.75 32:0.666667 33:0.666667 
109.11305565860923 2:0.0588235 6:1 12:1 15:0.6 16:0.5 17:0.666667 18:1 19:0.5 20:0.666667 21:0.75 22:1 23:0.75 25:0.25 26:0.5 27:0.25 28:0.5 29:0.25 30:0.5 31:0.25 32:0.333333 33:0.333333 
210.74904762638823 2:0.0588235 5:1 9:1 15:0.8 16:0.75 17:0.666667 18:0.666667 19:1 20:1 21:0.75 22:1 23:0.75 24:0.666667 25:0.75 26:0.75 27:1 28:0.75 29:0.75 30:0.75 31:1 32:0.666667 33:0.666667 
123.49426982974032 2:0.264706 3:1 4:0.2 5:1 8:1 15:1 16:1 17:0.666667 18:1 19:1 20:1 21:0.75 22:0.75 23:1 24:1 25:0.75 26:1 27:0.75 28:1 29:0.75 30:0.75 31:1 32:0.666667 33:1 
157.24395366389979 2:0.705882 4:0.2 6:1 13:1 15:0.6 16:0.75 17:0.666667 18:1 19:0.5 20:1 22:0.75 23:1 24:1 25:0.25 26:1 27:0.5 28:1 29:0.5 30:0.5 32:0.333333 33:1 
-42.070627768572614 2:0.0588235 6:1 9:1 15:1 16:0.75 17:1 18:0.666667 19:0.5 20:1 21:1 22:0.75 23:0.75 24:0.666667 25:0.25 26:0.5 27:0.5 28:0.5 29:0.75 30:0.75 31:0.25 32:0.666667 33:1 
-32.114117200396549 2:1 3:0.8 4:1 6:1 12:1 15:1 16:0.75 17:0.666667 18:0.666667 19:0.5 20:1 21:1 22:0.75 23:0.75 24:0.333333 25:0.25 27:0.25 28:0.75 29:0.75 30:0.75 31:0.5 32:0.666667 33:1 
-25.045154382592333 2:0.705882 3:0.4 4:0.2 5:1 12:1 15:0.4 16:0.5 19:0.75 20:0.666667 21:0.75 22:0.5 23:0.5 24:0.333333 26:0.25 27:0.5 28:0.5 29:0.5 30:0.5 31:0.5 32:0.333333 33:0.666667 
-53.190415642823488 2:0.264706 3:0.4 4:0.2 5:1 9:1 15:0.6 16:1 17:1 18:0.333333 19:0.75 20:1 21:0.5 22:0.5 23:0.75 24:0.333333 25:0.5 26:0.5 27:0.5 28:0.5 29:0.5 30:0.5 31:0.25 32:0.333333 33:0.666667 
-148.10093904637847 2:0.0588235 6:1 12:1 15:0.6 16:0.25 17:0.666667 18:0.666667 19:0.5 20:0.666667 21:0.75 22:0.75 23:1 24:0.666667 25:0.25 26:0.5 27:0.5 28:0.5 29:0.5 30:0.5 31:0.25 32:0.333333 33:0.666667 
-47.170747983366311 2:0.705882 3:0.6 6:1 8:1 15:0.4 17:0.333333 18:1 20:0.666667 21:0.5 23:0.5 24:1 26:1 27:0.5 28:0.5 31:0.5 32:0.333333 33:0.666667 
-16.900074993294496 2:0.705882 3:0.4 4:0.2 6:1 10:1 15:0.6 16:0.5 17:0.333333 18:0.333333 19:0.75 20:0.666667 21:0.75 22:1 23:1 24:0.666667 25:0.5 26:0.5 27:0.5 28:0.75 29:0.75 30:0.75 31:0.5 32:0.666667 33:1 
-165.62355111641693 2:0.411765 3:0.8 5:1 9:1 15:0.6 16:0.75 17:0.333333 18:0.666667 19:0.75 20:0.666667 21:0.5 22:0.75 23:0.75 24:0.666667 25:0.5 26:0.75 27:0.75 28:0.75 29:0.5 30:0.5 31:0.75 32:0.666667 33:0.666667 
-0.9190883532850731 2:0.0588235 6:1 11:1 15:0.2 18:0.333333 19:0.75 20:0.666667 21:0.25 22:0.5 23:0.5 24:0.666667 25:0.25 26:0.25 27:0.25 28:0.5 31:0.25 
-26.059679568491699 2:0.411765 3:0.6 6:1 11:1 15:1 16:1 17:1 18:1 19:1 20:1 21:0.75 22:1 23:1 24:1 25:0.75 26:1 27:1 28:1 29:0.75 30:0.75 31:1 32:1 33:1 
-79.06013634029641 2:0.411765 3:0.6 4:0.2 6:1 10:1 15:0.6 16:0.75 17:0.666667 18:0.666667 19:1 20:0.666667 21:0.5 22:0.75 23:0.75 24:1 25:0.75 26:0.75 27:0.75 28:0.75 29:0.75 30:0.75 31:0.75 32:0.666667 33:0.666667 
-92.852707598476627 2:0.411765 4:0.2 5:1 10:1 15:0.6 16:0.5 17:0.666667 18:0.666667 19:1 20:1 21:0.75 22:0.75 23:0.75 24:0.333333 25:0.75 26:0.5 27:0.75 28:0.75 29:1 30:1 31:0.75 32:0.333333 33:0.666667 
-141.21836053617756 2:0.0588235 6:1 9:1 15:1 16:0.25 17:1 18:0.666667 19:0.5 20:1 21:0.75 22:0.75 23:1 24:0.666667 25:0.75 26:1 27:0.75 28:0.75 29:0.75 30:0.75 31:0.75 32:1 33:1 
-27.390517123650568 2:0.264706 3:1 4:0.2 5:1 8:1 15:0.8 16:0.5 17:0.666667 18:1 19:0.75 20:1 21:1 22:0.75 23:1 24:1 25:1 26:0.75 27:1 28:0.75 29:1 30:1 31:0.75 32:1 33:1 
-46.863254801793822 2:0.411765 3:0.6 4:1 6:1 8:1 15:1 16:1 17:0.666667 18:0.666667 19:0.5 20:1 21:0.75 22:0.75 23:1 24:1 25:0.25 26:1 27:1 28:0.5 29:1 30:0.75 31:0.5 32:0.666667 33:1 
-282.24796961723985 2:0.0588235 6:1 8:1 15:0.8 16:0.75 17:0.666667 18:1 19:1 20:0.666667 21:0.5 22:0.75 23:0.75 24:0.666667 25:0.5 26:1 27:0.5 28:0.75 29:0.75 30:0.75 31:0.75 32:0.666667 33:1 
-77.713281426560712 2:0.0588235 5:1 8:1 15:1 16:0.75 17:1 18:1 19:0.75 20:0.666667 21:1 22:1 23:1 24:0.666667 25:0.75 26:0.75 27:0.75 28:1 29:0.75 30:0.75 31:0.75 32:1 33:0.666667 
-31.049295997321867 5:1 9:1 15:0.6 16:0.75 17:1 18:0.666667 19:0.75 20:1 21:0.75 22:0.75 23:0.75 24:1 25:0.75 26:0.75 27:0.75 28:1 29:0.75 30:0.75 31:0.75 32:0.666667 33:0.666667 
-115.4941237601975 2:0.117647 4:0.2 6:1 9:1 15:0.4 16:0.75 17:0.666667 18:0.666667 19:0.75 20:0.666667 21:0.75 22:1 23:0.75 24:0.666667 25:0.75 26:0.75 27:0.75 28:0.75 29:0.75 30:0.75 31:0.75 32:0.666667 33:0.666667 
-5.1728701877192123 2:0.411765 3:0.6 4:1 7:1 10:1 15:0.6 17:1 18:0.666667 19:0.75 20:0.666667 21:0.75 22:0.75 23:0.75 24:0.666667 25:0.75 26:0.75 27:1 28:0.75 29:0.75 30:0.75 31:1 32:0.666667 33:0.666667 
-21.628754220531899 2:0.264706 3:0.8 4:1 5:1 8:1 15:0.6 16:0.5 17:0.666667 18:0.666667 19:0.75 20:0.666667 21:0.75 22:0.5 23:0.75 24:0.666667 25:0.75 26:0.75 27:0.5 28:0.75 29:0.75 30:0.75 31:0.5 33:0.666667 
-75.452618355167445 2:0.411765 3:1 4:0.2 5:1 10:1 15:1 16:0.5 17:1 18:1 19:0.75 20:1 21:1 22:1 23:0.75 24:1 25:1 26:1 27:1 28:1 29:1 30:1 31:0.75 32:0.666667 33:1 
-30.467123729869073 2:0.117647 4:0.2 6:1 13:1 15:0.6 16:0.75 17:1 18:1 19:0.75 20:1 21:0.75 22:1 23:1 24:1 25:1 26:1 27:0.75 28:0.75 29:1 30:1 31:0.5 32:0.666667 33:1 
-99.896196185207543 2:1 3:0.8 6:1 13:1 15:0.6 16:0.75 17:0.666667 18:0.666667 19:1 20:1 21:0.25 22:0.75 23:1 24:0.333333 25:0.5 26:0.25 27:0.25 28:0.5 29:0.5 30:0.5 31:0.5 32:0.666667 33:1 
-37.401652558027521 2:0.411765 3:0.4 4:1 5:1 9:1 15:0.8 17:1 18:1 19:0.25 20:0.666667 21:0.5 22:0.5 23:0.5 24:0.333333 26:0.75 27:0.5 28:0.75 29:0.75 30:0.75 31:1 32:0.333333 33:1 
