svm_type c_svc
kernel_type rbf
gamma 0.5
nr_class 3
total_sv 481
rho -0.58190227519823479 -0.55882073461222692 -0.016033676972970406
label 2 0 1
nr_sv 289 95 97
SV
0.41809437072774075 0.4480617846296715 1:-2.0600939 2:177.90088 
0.27077854044298932 0.28810940213451147 1:-1.3356645 2:441.61182 
0.32496214307418059 0.34193399747336062 1:-2.1836576 2:417.31851 
0.34860582952061558 0.36772490602590019 1:-1.474367 2:479.11736 
0.03129254933898229 0.031430075517975262 1:-1.2233913 2:606.77335 
0.33561140068853995 0.35421599764722234 1:-0.0849822 2:742.95961 
0.17558425250065293 0.18456638662020217 1:-2.1973702 2:264.08972 
0.90396231824800566 0.26881059775182053 1:-2.3757359 2:70.11607 
0.11850731583908837 0.12217681177706957 1:-1.4069918 2:429.10513 
0.22700550764866528 0.23806641755579866 1:-2.1940966 2:227.419 
0.2815136434811068 0.32908726776219771 1:-2.9145555 2:134.32092 
0.31119470214073269 0.32858683346954087 1:-1.1653658 2:554.44949 
0.35563861853873346 0.37568281828123873 1:-0.4873276 2:513.47753 
0.41775219547494863 0.45460465844206338 1:0.3663354 2:809.77626 
0.36220503745641525 0.381746051400571 1:-0.2125271 2:707.1131 
0.8859620583061022 0.21000045635889461 1:-1.9105697 2:403.78735 
0.33744632509745515 0.35591728842876935 1:0.6513379 2:878.77164 
0.2314878741363412 0.24473561595548257 1:-1.2136613 2:615.04719 
0.24596211077181568 0.25989103629700067 1:-2.2137683 2:287.99832 
0.25623154592683384 0.27058650793410793 1:-1.6571121 2:397.13584 
0.35595786138744051 0.37598291237121617 1:-1.3133916 2:515.15438 
0.3501749508234262 0.36967372513278479 1:-1.2046353 2:543.22684 
0.22946093348973881 0.29864330386022386 1:-1.5848391 2:315.59323 
0.40156771737672159 0.42330425214846734 1:-0.5783523 2:739.42838 
0.41814580620489866 0.44134436045618519 1:-3.8886562 2:-160.07355 
0.84844127898623922 0.39135647348609032 1:-1.7588647 2:402.0411 
0.23478510331088315 0.24836682150222636 1:-1.3787763 2:248.57875 
1 0.39215887714745845 1:-1.5843794 2:423.49818 
0.2264510469718275 0.23981160482561067 1:-0.2781652 2:686.31172 
0.41800858143129294 0.44133211943084794 1:-4.3246334 2:-381.02816 
0.16850320370515415 0.17683525594485514 1:-0.7281428 2:455.71282 
0.35927134865512567 0.37957039711360269 1:-0.4007991 2:705.19696 
0.4169367448220585 0.43963352206449058 1:0.358063 2:776.29164 
0.41833423959730065 0.44162486339821544 1:0.1796866 2:1040.1002 
0.23650715647935291 0.26345461086021743 1:-2.4747569 2:78.516176 
0.35562929236135876 0.37558741436813775 1:-0.695745 2:640.81344 
0.16534555095539663 0.17474746870418814 1:-1.7186817 2:432.78372 
0.20944921377179476 0.22153320576375443 1:-0.7926101 2:596.40397 
0.41861355564629443 0.4415164229296144 1:0.4647758 2:961.1265 
0.39416881888418454 0.28834185468458323 1:-0.5264318 2:696.46645 
0.32135308581649963 0.33952398297093328 1:0.0896582 2:727.49969 
0.40205387240683454 0.41975187632897337 1:-1.8716971 2:377.90089 
0.2158080619012796 0.22835237128897395 1:-0.058785 2:682.08915 
0.23318124294496223 0.24540589029707502 1:-0.8708391 2:614.47395 
0.37741981897308607 0.39876936953846037 1:-0.8029861 2:659.7204 
0.5733781203621986 0.4174345930442333 1:-0.9552607 2:588.27073 
0.2267693728709072 0.24071738294848752 1:-2.1122868 2:155.02899 
0.26264254226052047 0.27629081431447494 1:-1.5225645 2:409.40933 
0.25517562327070281 0.26934535645077229 1:-1.3173729 2:398.02668 
0.36042630736714254 0.38060654432191704 1:-0.0923464 2:472.85164 
0.11214351371268924 0 1:-1.2689881 2:426.1817 
0.39988905264550095 0.42298979175414325 1:-0.2106133 2:793.80855 
0 0.023466864080411209 1:-0.9167642 2:588.27292 
0.4180076135984348 0.44128778599339435 1:-2.9902582 2:7.6072103 
0.28002194206850772 0.29536120296201784 1:-0.5241642 2:628.62386 
0.34346481594975686 0.36257877859408544 1:-0.8341142 2:540.89594 
0.28686368030405568 0.3038047973118802 1:-1.8339032 2:430.95765 
0.36916428167434717 0.38969148187405855 1:-1.5227148 2:361.39329 
0.36710949458502651 0.38863994407002073 1:-2.129462 2:82.103125 
0.41802823119545945 0.44124060014443606 1:0.9558797 2:860.33202 
0.21731007206851033 0.23189425461716048 1:-0.3636594 2:519.87274 
0.41627235546411129 0.43926405045300687 1:-1.0143911 2:746.04513 
0.050086530158352911 0.22398881731189654 1:-1.7531725 2:425.52083 
0.33125595130709062 0.35168818263774021 1:0.5693071 2:914.75744 
0.31414335011231392 0.3316972805338475 1:-1.5335289 2:474.53786 
0.21073138505608108 0.2222121332255553 1:-0.8389168 2:596.25964 
0.22302305967579938 0.23516860899112921 1:-2.5402861 2:161.76029 
0.37456549722928234 0.39636604386195723 1:-1.3253288 2:605.54417 
0.31060254228970152 0.32747530840923356 1:-2.3723168 2:168.7509 
0.6084792801261445 0.40897487353770851 1:-1.457308 2:497.75063 
0.41814553928724485 0.45025182747939735 1:0.1872842 2:804.01773 
0.4164914652319085 0.43968963247249326 1:0.8518266 2:907.44478 
0.24121442599360482 0.25495886524147415 1:-0.3602017 2:720.58126 
0.34954767598440645 0.36747549104543098 1:-2.5468207 2:75.112516 
0.25565599891123164 0.27068596724698213 1:-1.5020618 2:355.45637 
0.332956186214727 0.35135307562646084 1:-1.7477997 2:482.00624 
0.22813381206828856 0.24005952119409563 1:0.0849743 2:854.07024 
0.26490117166576793 0.27971445680727647 1:-0.5919298 2:666.27216 
0.41858228593632257 0.44079489681353567 1:-2.7728803 2:1.8803852 
0.24247924834002843 0.25495897757633751 1:-0.1285983 2:721.34122 
0.23042218382909427 0.24313052799622165 1:-0.3375278 2:557.16209 
0.045092097361760133 0.047394276019433731 1:-2.1159597 2:290.78394 
0.4177783767340687 0.44249131757967342 1:-3.0320163 2:-56.007917 
0.23042382017908292 0.2436788855576946 1:-1.786432 2:232.38003 
0.37072189614080059 0.39059727685443113 1:-2.3046118 2:84.113603 
0.41833315268735921 0.4412304504528089 1:0.3001658 2:1025.1608 
0.35119108055993242 0.37049636741404723 1:0.2298013 2:929.30226 
0.38434174027625184 0.40514437642068513 1:-1.9006915 2:117.18392 
0.28206975263251699 0.2977156965003912 1:-1.5363037 2:450.72808 
0.38226793264323777 0.40335455145730964 1:-2.5102662 2:325.62694 
0.12017923009445527 0.12552144270938323 1:-1.5367355 2:414.78684 
0.40975970844902559 0.4328069442617985 1:-0.2127795 2:769.34369 
0.40397255405577409 0.42626759152917937 1:0.5268305 2:827.5546 
0.2627455775605691 0.27661336245476409 1:0.027934 2:665.44002 
0.25913219609188476 0.27286553976784045 1:-2.1769676 2:241.74769 
0.31359740685298898 0.3314457571136385 1:-2.6148784 2:-26.562763 
0.41778401818378968 0.44150492040439127 1:0.3720596 2:921.39561 
0.17024854426057751 0.17914743242225475 1:-1.1692626 2:475.92647 
0.41796731424782985 0.44115148481738342 1:0.9609991 2:1061.5501 
0.26933762678898809 0.28296486791724257 1:-0.9255483 2:312.98059 
0.27222418106881413 0.28757724628951037 1:-1.7899251 2:283.05168 
0.12961778282067876 0.14066022063191769 1:-1.1666356 2:433.07054 
0.41798671738582532 0.44129509854292903 1:-0.4294655 2:655.5894 
0.22087826362086943 0.23294869597006995 1:-2.5748198 2:61.347198 
0.41772299581049666 0.44115148434571222 1:-3.2687289 2:-263.08679 
0.31185809044562246 0.32934005099109259 1:0.7025404 2:741.50441 
0.26087436352135102 0.27504966070294301 1:-0.6453288 2:662.04573 
0.30536553835593411 0.32244195004365472 1:-2.395192 2:119.5813 
0.38698759705909691 0.4085005429612043 1:-1.9527842 2:471.55751 
0.41727478277582131 0.44043322927083489 1:-0.5911597 2:623.34287 
0.26707847067908119 0.28232015559683749 1:-0.1010956 2:729.39256 
0.27029356047816278 0.28461339878788983 1:-0.6421635 2:565.74408 
0.41802416815194443 0.44154163993928863 1:1.2521675 2:1219.6356 
0.35138064140744185 0.36994825300169681 1:0.2411805 2:931.12347 
0.41474530029096701 0.43766060990014771 1:-1.6167561 2:444.59069 
0.41213025984509516 0.43720096403037223 1:-0.8000553 2:494.78115 
0.19500421007392577 0.20639380592240714 1:-0.054275 2:567.6818 
0.41729856770641793 0.44025212437611094 1:-0.8973531 2:619.83606 
0.11892635822801899 0.12703778694367993 1:-1.5556386 2:418.33553 
0.22295161701955973 0.23191893613379191 1:-0.6951654 2:520.18964 
0.4090598494076636 0.43159129566163196 1:-1.8823027 2:245.01497 
0.40201455662827468 0.42512408170382193 1:-1.3035782 2:438.72533 
0.27415364713276025 0.2898981066397015 1:-0.3656449 2:583.28457 
0.42452142023089939 0.41074980289318452 1:-2.4325814 2:67.71351 
0.41814970396866757 0.44073659364422813 1:-3.7400767 2:-186.3841 
0.36954484093765549 0.38978053351508651 1:-1.4028688 2:352.98225 
0.31119547529255964 0.31877263608349427 1:-1.1518713 2:502.54237 
0.35570001929920964 0.37537714675353906 1:-0.844699 2:538.94245 
0.11974090914001434 0.13228928974469178 1:-1.1493679 2:503.49858 
0.40045908589012702 0.42259472323792907 1:-2.1407068 2:350.62858 
0.41528902300333709 0.43838462651759508 1:1.3756091 2:938.10449 
0.41814001127199757 0.44105270010851905 1:-0.5130122 2:651.00648 
0.094088545301795112 0.098717892486915371 1:-2.1334114 2:118.95685 
0.30819477138132961 0.32495202685916491 1:-0.9023101 2:287.54154 
0.19599748364573277 0.20793104994779091 1:-1.7776719 2:456.55657 
0.26110028574372596 0.27558236406887943 1:-1.5115522 2:304.26891 
0.14352969385266026 0.11925808984236043 1:-1.4585623 2:314.41919 
0.36023735920867439 0.379816113340328 1:0.856377 2:842.36024 
0.12970144939304384 0.13708605908018937 1:-1.4500821 2:483.09184 
0.27320457679297183 0.28773387172437165 1:-2.8846429 2:99.315756 
0.41003521315307467 0.38857011344703341 1:-1.2868176 2:406.47256 
0.25685955965675678 0.27106403622621822 1:-1.9133437 2:330.56898 
0.20681462390818489 0.21888199895951557 1:-1.8919652 2:242.43535 
0.30486100787445125 0.32171547250759142 1:0.367789 2:627.60863 
0.2038982987807095 0.27635385525878725 1:0.4880969 2:696.92249 
0.22087818375708307 0.23345599611354523 1:-2.7706458 2:61.784504 
0.29081023907501757 0.32221567715655364 1:-0.9331741 2:427.52097 
0.25341416923039661 0.26740758791257885 1:-1.8016939 2:289.72034 
0.27320457679285454 0.28845229765073732 1:-2.9911492 2:98.195657 
0.40230113230192499 0.68517262300882109 1:-1.6424959 2:380.43108 
0.39448088836809725 0.41685635117294922 1:-0.3983194 2:701.9114 
0.070201830819624111 0.23082617591449184 1:-0.7235569 2:425.53279 
0.33724972013309024 0.35633866390614333 1:0.7240914 2:877.08172 
0.41854399296443806 0.44137078273345581 1:0.4880072 2:818.32161 
0.65179714645654019 0.44112392390227867 1:-3.3289762 2:-8.2456223 
0.23186692266947528 0.24455585214069053 1:-1.1856722 2:728.6569 
0.35727422712225926 0.36634495110469095 1:-2.8270408 2:73.337387 
0.23239563704996857 0.24449177986140488 1:-2.0304587 2:232.98714 
0 0.064100485078061237 1:-0.9056428 2:526.772 
0.27144542319838494 0.28569135468872797 1:-2.0693796 2:284.13027 
0.33466859827144152 0.35332404490521097 1:-2.1069802 2:296.36293 
0.31870100034598048 0.33616381941168816 1:-1.9597874 2:-27.931894 
0.35969367453507828 0.37981611334032805 1:-0.2366258 2:840.7924 
0.18402243480932065 0.19357597171704996 1:-0.8122349 2:568.24768 
0.41814370676809864 0.44162145054192753 1:-1.3834596 2:218.90205 
0.23096103843885391 0.24412186958602386 1:-0.4907693 2:451.62932 
0.12623947933623075 0.13346597332585891 1:-0.4667755 2:556.16918 
0.39905656519239596 0.42156514398785172 1:0.3569989 2:796.21686 
0.40676738525802725 0.42932080538314515 1:-0.1118024 2:631.14201 
0.3860859120555446 0.40675974105251667 1:-0.8042491 2:434.98647 
0.41793207510575348 0.44138431193008182 1:1.4236617 2:1188.2067 
0.41778823696441869 0.44121685360370155 1:0.9303858 2:1110.9343 
0.25167604336338423 0.26552419311397607 1:-1.4200099 2:467.32304 
0.41810963698411152 0.44143114791756821 1:1.4371118 2:980.72919 
0 0.079364795885222772 1:-0.2003935 2:526.16382 
0.37111999972965909 0.3924091081491628 1:-0.7993015 2:607.74286 
0.30171474863668152 0.31806959160301151 1:-1.8657337 2:123.08505 
0.25743077037766499 0.27236203331773773 1:-0.4916711 2:476.95998 
0.42226029687866573 0.43890498348236767 1:-2.0828821 2:-23.496548 
0.42902718028122144 0.4402516194020008 1:-2.9647468 2:-35.763584 
0.32927831420506359 0.34499946724188385 1:-0.4443634 2:584.77809 
0.26021483733501632 0.27394155792074898 1:-1.0881197 2:580.95567 
0.27950959341856696 0 1:-0.9763561 2:424.75683 
0.29861354313182376 0.31458680897722746 1:-2.3797243 2:268.72549 
0.36887514642698588 0.38906750636148263 1:-1.5409555 2:484.6366 
0.41814811879267622 0.44116014493739031 1:1.0314209 2:1179.228 
0.21116931304974404 0.22257539588198549 1:-0.9182153 2:429.454 
0.16159117526031869 0.16820453923458195 1:-1.4265988 2:441.03198 
0.38757858796004702 0.40850167156535644 1:-0.383509 2:699.51028 
0.25794915019821107 0.27180583889487864 1:-1.4443669 2:331.41807 
0.9040521790998034 0.33979256354598614 1:-1.210183 2:525.68082 
0.40407608635792974 0.4267669119673802 1:0.5191975 2:824.96356 
0.41804512837326413 0.44114550166897526 1:-3.3205348 2:-256.78891 
0.41450974958176967 0.54016655483674558 1:-1.8699773 2:158.56695 
0.21480408460153813 0.22216917121928864 1:0.8412377 2:814.09525 
0.21069266914890311 0.2219699975255737 1:-2.1160952 2:161.64874 
0.35855479183980959 0.37865270978813675 1:-0.3926068 2:713.00068 
0 0.24893266594093799 1:-2.1801224 2:404.84035 
0.41786411744758195 0.44100771356236945 1:-0.0436733 2:750.69675 
0.20966127025175843 0.22034868833122892 1:-0.9617887 2:456.9683 
0.41792046315066439 0.44107986054696602 1:-0.1070242 2:733.64922 
0.41809348395742763 0.44121986951080477 1:-1.3833309 2:337.99998 
0.23695317116298464 0.24942093503525622 1:-1.947847 2:249.02314 
0.40391392173554702 0.42611310969132232 1:-0.1775804 2:887.23079 
0.37094516643537523 0.39163563828448616 1:-1.235289 2:393.00446 
0.32337365264183998 0.34166318453101746 1:-1.4996758 2:323.7826 
0 0.17069471800116401 1:-2.8525687 2:69.864514 
0.26748285985975029 0.2829513295988777 1:-2.1543373 2:166.11493 
0.41785584980928636 0.44106431434888571 1:-2.9835774 2:-31.622809 
0.41779611589489135 0.44129963695573737 1:-0.7358006 2:549.97863 
0.36607344484547077 0.38592330767757888 1:-0.9118894 2:558.84052 
0.4177783767340687 0.44069167918696639 1:1.6087698 2:1270.1629 
0.34967463232410345 0.36953304443535084 1:-1.3665047 2:454.1031 
0.41814934801244763 0.44114470199056982 1:1.0796051 2:1034.9721 
0.15633933599886235 0.16545034244678347 1:-1.2396391 2:581.53593 
0.1308637995468446 0.13775834960404595 1:-1.1648267 2:567.57075 
0.40379695393125953 0.4264305656557511 1:0.4439399 2:889.73852 
0.41780514033808541 0.44122587565347643 1:-0.5692075 2:677.37069 
1 0.18965249816497456 1:-1.0393342 2:499.77794 
0.36249040954902984 0.3828961622316957 1:-1.9637563 2:262.21009 
0.222032293493652 0.2336777993930638 1:-0.6491149 2:355.10499 
0.4641081705785875 0.32936884855070414 1:-1.8551501 2:133.303 
0.41807114931505224 0.44141682689036243 1:-0.0821831 2:969.47495 
0.41827389119401642 0.4412668199913139 1:0.0078427 2:758.62911 
0.13963311021665284 0.16098580963818979 1:-1.7073086 2:313.28251 
0.23341889292932108 0.2443860385222035 1:-2.2177324 2:154.40021 
0.41841275119918397 0.44153707881493298 1:0.9542607 2:974.61483 
0.40901877959530047 0.43197578176392193 1:-1.8239308 2:300.63369 
0.22283364003161765 0.23521215942513607 1:-2.4580117 2:255.90848 
0.25291436331633144 0.26643469698691952 1:-0.5052482 2:467.34734 
0.34739208749656791 0.36671040970363283 1:0.8069324 2:916.551 
0.35736535722335505 0.361494848323478 1:0.2381448 2:527.47792 
0.41772323000880524 0.44131698983512135 1:-1.9174787 2:273.47612 
0.21120304231003401 0.22083924439235925 1:-0.4131117 2:578.41899 
0.22446665965461826 0.23580331062685519 1:0.124067 2:685.92022 
0.22881385114813155 0.24187730073009556 1:-0.2828902 2:853.58411 
0.41028210172686691 0.43284823543523682 1:-0.050718 2:772.13839 
0.2182840891400431 0.22929038495371301 1:0.3144018 2:681.97014 
0.41807063126142224 0.44124440808563742 1:2.9560864 2:1407.048 
0.34415879366237978 0.36334759497364244 1:-0.7176663 2:564.13068 
0.41779369303958214 0.44110919580291191 1:0.4161012 2:871.36437 
0.26310873091740927 0.27763147133899063 1:-0.9822086 2:305.14265 
0.29470990188593538 0.31161580341443007 1:-1.8517395 2:267.49163 
0.22499118922823341 0.23355740079950588 1:-2.7482687 2:79.127172 
0.33311041670635111 0.35129197618705149 1:-1.6084653 2:291.47613 
0.26509225165810074 0.28098913044596541 1:-1.3614213 2:415.08997 
0.41795010907963526 0.4407190211657801 1:0.8261956 2:1133.8778 
0.37459790252571629 0.39508529022187222 1:-0.6622555 2:545.19522 
0.021471385655993987 0.020703243534235305 1:0.2257668 2:915.09456 
0.41801232874193611 0.44133616492102468 1:-2.070201 2:21.037222 
0.3699629669002476 0.39007444156826837 1:-1.7280882 2:363.39717 
0.41813358963470598 0.44136725095122831 1:-1.7970855 2:368.61253 
0.3716617403612073 0.39185844303645251 1:-1.9336735 2:391.09304 
0.41829263307385922 0.44119294043753204 1:-1.8592792 2:90.577581 
0.10129443284830131 0.10670050622471181 1:-1.3347665 2:451.96888 
0.22346847740759551 0.23521216303964571 1:-2.2939365 2:255.41492 
0.18205371528551725 0.19239101487314408 1:0.0174475 2:661.58003 
0.21960368899448096 0.23371706363296252 1:0.0285181 2:578.52917 
0.26338974539760618 0.2780506649291633 1:-2.3499043 2:121.89789 
0.22776836695800753 0.24061947475306295 1:-1.7872161 2:555.75416 
0.41780457203679944 0.50181180943664749 1:-2.1272016 2:187.3258 
0.41792706043697497 0.44124598367601886 1:0.295127 2:866.84772 
0.099751376110473827 0.10497060004072926 1:-1.0931614 2:477.9656 
1 0.44087282626923607 1:-2.7307666 2:-39.278349 
0.408139134072599 0.43068287003933287 1:-0.570233 2:536.28019 
0.35849461453298243 0.37873029748310422 1:-0.14167 2:714.88166 
0.41654448443200515 0.43983802656337978 1:-0.2566187 2:910.61602 
0.63513967155225459 0.39074967501715491 1:-1.089093 2:317.42723 
0.41706982718086771 0.44009279482212899 1:-0.3062879 2:779.67852 
0.41865227314901071 0.4412710146906807 1:0.8415563 2:1142.1763 
0.25407841047542917 0.26845003145101232 1:-1.3943672 2:264.26358 
0.35845169389960818 0.37701451539226427 1:-1.4272136 2:419.70971 
0.41978372077347431 0.4411087354963556 1:-2.5827973 2:-3.9505108 
0 0.27085298310184636 1:-0.4826417 2:500.35918 
0.37466542256081659 0.39395403497134329 1:-0.8466127 2:505.09379 
0.41773085508402336 0.44096273026427868 1:0.6151658 2:754.46959 
0.31951268428636986 0.33677182680250756 1:-1.6993131 2:297.95064 
0.32232023601987414 0.34026163894116995 1:-1.5409899 2:170.0411 
0.23515448805414696 0.24888460746898422 1:-0.9427559 2:410.17001 
0.41829471299087423 0.44135808697146633 1:-0.6747361 2:690.74696 
0.37631708794920654 0.39278177237889755 1:-0.6961854 2:321.97377 
0.08650815871899073 0.087013965113733396 1:-1.1615438 2:432.40353 
0.28250308589118728 0.29784106335947713 1:-2.0764896 2:164.93714 
0.38079905528127539 0.40212528355453087 1:-1.1250367 2:412.67622 
0.41496330773702933 0.43806825614078804 1:0.7926252 2:934.99314 
0.21522922915446277 0.23145109292849658 1:0.5064273 2:814.15122 
0.22586698532707711 0.23962606764834735 1:-2.0572843 2:227.97891 
0.41863262503612209 0.44114991252275521 1:0.1259475 2:1014.5838 
0.35579814883879379 0.37547520611128588 1:-0.4406211 2:638.96483 
-1 0.9841152304753239 1:-0.9745341 2:-1490.3331 
-0.15612941681089268 0 1:-1.141632 2:-291.18475 
-1 0.98406743928625129 1:0.5287688 2:-1981.7596 
-1 0.9838530033654711 1:-0.8127289 2:-309.69364 
-1 0.98090291184913192 1:-1.2599056 2:69.801921 
-1 0.98577602521064689 1:-1.2725038 2:-891.18644 
-1 0.9352176792849104 1:-1.1091338 2:-1560.7958 
-1 0.72858037636507689 1:-1.2110477 2:-84.64011 
-1 0.98385684810572072 1:-1.4352149 2:-672.15578 
-1 0.98451036108715906 1:-0.6884292 2:-810.51819 
-1 0.98451036108715406 1:-0.2553042 2:-1438.4792 
-1 0.98405428815221685 1:-0.6909075 2:-73.284057 
-1 0.98399407121910853 1:-1.3282489 2:-302.04498 
-1 0.98403679774386976 1:-0.6269609 2:-1582.1992 
-1 0.95297971569721762 1:-1.4686674 2:-585.90177 
-1 0.983961051755741 1:-0.5580638 2:-1203.3965 
-1 0.9615385457441965 1:-1.6261535 2:-1247.6454 
-1 0.98451036108617929 1:-0.3335195 2:-1240.4162 
-1 0.98392725008857074 1:-0.5816859 2:39.621039 
-1 1 1:0.4825809 2:-995.4224 
-1 0.98158754948446236 1:-1.4470672 2:-795.50677 
-1 1 1:-0.5535558 2:-988.29263 
-1 0.9818789330707236 1:-0.2625989 2:-342.41563 
-1 0.86152974364502177 1:-1.0812781 2:-792.08898 
-1 0.75531950221879562 1:-1.6935173 2:-292.19882 
-1 0.9845827356726875 1:-1.7714995 2:-38.988582 
-1 0.98223514166732195 1:-1.1950787 2:-474.81394 
-1 0.83390550653450246 1:-0.5586266 2:-447.76448 
-1 0.93536156199056009 1:0.6609035 2:-1559.1299 
-1 0.98392431079471365 1:-1.5203041 2:694.50634 
-1 0.9906470030542105 1:-0.2301633 2:-567.5213 
-1 0.98386859126579262 1:-1.9416984 2:524.78185 
-1 1 1:-1.6412856 2:-393.62632 
-1 0.98387337732631719 1:-0.9307296 2:-1119.8739 
-1 0.98104266882349045 1:0.1022991 2:72.93788 
-1 0.98377615661805562 1:-0.7329747 2:-117.22613 
-1 0.98385684810572116 1:-0.7060972 2:-1804.1931 
-1 0.98397252331635332 1:-0.2005035 2:-1032.8292 
-1 1 1:-0.8251333 2:-112.87114 
-1 0.98402689686721367 1:-0.1306243 2:134.27265 
-1 0.98385300639814388 1:-0.900965 2:-964.03164 
-1 0.98370391753537656 1:0.2960844 2:-1198.1152 
-1 0.96169430811906087 1:0.178306 2:-1249.7113 
-1 0.98387792659006079 1:-1.5380867 2:499.27509 
-0.97971839185640619 0.43561837206282517 1:-1.689025 2:-129.29497 
-1 0.98842409200418646 1:-0.109099 2:-356.49027 
-1 0.86453189517645757 1:-1.1837911 2:-790.10416 
-1 0.98665165171959279 1:0.0702776 2:-573.49812 
-1 0.98387477225298436 1:-1.8369504 2:-368.75381 
-1 1 1:-1.1503953 2:-376.78699 
-1 0.97974359302904601 1:-0.0074294 2:-471.7424 
-1 1 1:-0.0125775 2:-511.91851 
-1 0.98387350490976988 1:-2.6594402 2:587.3692 
-1 0.96702047305568173 1:-1.1326564 2:-425.16631 
-1 0.98387274318107343 1:-1.1492992 2:-1157.5025 
-1 0.98391698611312928 1:-0.4524939 2:-1193.9872 
-1 0.99911757080694275 1:-1.6075159 2:-562.30345 
-1 0.98396165287100157 1:-1.2358037 2:-142.53004 
-1 0.98360922811371032 1:-1.620116 2:-271.98271 
-1 0.98405429004593492 1:0.125336 2:-783.31762 
-1 0.98785301171436291 1:-0.0212002 2:-345.7268 
-1 0.75517350561001906 1:-0.7823889 2:-290.95078 
-1 1 1:-1.5648299 2:-455.8752 
-1 0.98386342362587165 1:-0.6241732 2:-867.76363 
-1 0.98356845832835282 1:-1.0582068 2:111.62882 
-1 1 1:-0.3174729 2:-655.28274 
-1 0.98395916707376263 1:-0.7283209 2:-1211.2517 
-1 1 1:-1.9044642 2:-359.57923 
-1 0.98387350490976933 1:-0.2964198 2:-680.4574 
-1 0.98398869285861468 1:-1.311737 2:-742.78147 
-1 0.98398842018515631 1:-0.0766645 2:-1265.9273 
-1 1 1:0.5269869 2:-949.2691 
-1 0.95180976960705488 1:-3.0695944 2:-583.83393 
-1 0.98397179411435998 1:-2.7585176 2:-98.019942 
-1 0.98401498829753331 1:-1.211285 2:-973.03618 
-1 0.84489881860077143 1:0.5382916 2:-446.26169 
-1 0.9840285597063847 1:-2.2194234 2:1173.2279 
-1 0.64766775725012093 1:-0.2730988 2:403.72743 
-1 0.98353455348983232 1:0.0560317 2:-35.520952 
-1 0.98398786198044008 1:-0.2225671 2:-759.49929 
-1 0.72896214363055745 1:-1.2466922 2:-83.192234 
-1 0.98386859126579262 1:-1.8997415 2:318.86417 
-0.97849645891888726 1 1:-0.8950488 2:-128.71186 
-1 0.98434896934187388 1:-0.1384789 2:-363.16976 
-1 0.98396769593537203 1:-0.1581291 2:-331.27981 
-1 1 1:-0.8316706 2:-488.98793 
-1 0.96701212762045685 1:-0.8632222 2:-422.33523 
-1 0.64861853765826105 1:-0.9655535 2:402.81426 
-1 1 1:0.8131111 2:-941.40604 
-1 1 1:-0.7994462 2:-541.05274 
-1 0.98796593788018527 1:-0.5651853 2:-20.739152 
-1 0.98413679100947082 1:-1.9702804 2:-907.7267 
-1 0.98393027062757654 1:-0.9096758 2:423.33076 
-1 0.98331798815271809 1:-1.5751813 2:-580.45597 
-1 0.98391324541855296 1:-1.8245996 2:-7.4430682 
-1 -0.89912532718924587 1:0.7819624 2:-378.7808 
-1 -1 1:1.9305549 2:-1376.2198 
-1 -1 1:0.9629369 2:-437.02789 
-0.13883848832129472 -0 1:1.4758356 2:-773.19798 
-1 -1 1:1.6892906 2:-893.12591 
-1 -1 1:0.591699 2:-55.094089 
-1 -1 1:1.0301507 2:-596.1804 
-1 -1 1:0.6480431 2:-395.16383 
-1 -1 1:0.8879695 2:-282.25108 
-1 -1 1:1.5724769 2:-988.49514 
-1 -1 1:1.6310022 2:-1025.0049 
-1 -1 1:0.9158828 2:-489.01797 
-1 -1 1:0.5479311 2:-41.837448 
-1 -0.74192099601115868 1:0.5588073 2:-127.24944 
-1 -1 1:0.5848103 2:-186.63107 
-1 -1 1:1.4524855 2:-900.89017 
-1 -1 1:0.9566256 2:-648.76762 
-1 -1 1:0.5725506 2:-161.24993 
-1 -1 1:1.5544107 2:-1047.8065 
-1 -1 1:0.8442214 2:-359.5334 
-1 -1 1:0.5829291 2:-128.60739 
-1 -1 1:1.8565758 2:-994.35242 
-1 -0.8377514453660817 1:1.2698866 2:-728.64503 
-1 -1 1:1.7661687 2:-1137.4515 
-0.96088271453702156 -0.63150818007362874 1:0.8466661 2:-498.85383 
-1 -1 1:1.284905 2:-539.7359 
-1 -1 1:1.3659184 2:-909.9898 
-0.96300707201148328 -0.57971320306684648 1:0.9500686 2:-454.81484 
-1 -1 1:0.7149444 2:-326.45581 
-0.79018969621988489 -0.52406532398623762 1:1.3507737 2:-1093.5784 
-1 -1 1:-0.5658262 2:806.99206 
-1 -1 1:1.8993089 2:-1233.3132 
-1 -1 1:0.3650931 2:-110.89881 
-1 -1 1:-0.0051327 2:380.52436 
-1 -1 1:1.2795586 2:-1013.3462 
-1 -1 1:1.0760736 2:-494.95342 
-0.92867365615364161 -0.59773167337384425 1:0.8516924 2:-497.91414 
-1 -0.80990911914453412 1:1.5123344 2:-772.3102 
-1 -0.99911757080694275 1:1.3019187 2:-699.99242 
-1 -1 1:0.6454942 2:-122.74577 
-1 -1 1:1.3688736 2:-955.09747 
-0.77778709861220974 -1 1:1.2051323 2:-943.80177 
-1 -1 1:0.7466289 2:-247.92485 
-1 -1 1:0.4819047 2:-17.592544 
-1 -0.83782576921988983 1:1.442006 2:-726.89386 
-1 -1 1:0.9030336 2:-652.90894 
-1 -1 1:0.4740671 2:-13.313259 
-1 -1 1:0.4821493 2:-133.60348 
-1 -1 1:1.7715087 2:-1053.2529 
-1 -1 1:0.2520518 2:158.32891 
-1 -1 1:1.5786072 2:-949.5273 
-0.78846879377658163 -0.064744024097759811 1:1.2953507 2:-943.90898 
-1 -1 1:0.8537979 2:-339.07259 
-1 -1 1:1.1367814 2:-512.66566 
-0.91441498942436195 -0.61234412271085348 1:0.0790361 2:185.07537 
-1 -1 1:2.2490424 2:-1221.0394 
-0.79573521688706517 -0.50959918217663058 1:1.595733 2:-1093.4787 
-1 -1 1:1.3201665 2:-655.80174 
-1 -0.99914141566657344 1:1.1469379 2:-702.84583 
-0.96441359193139453 -0.74475832564065236 1:0.6419421 2:-455.74673 
-1 -1 1:0.1002063 2:790.21805 
-1 -1 1:1.3436104 2:-570.28186 
-1 -1 1:1.4389455 2:-927.83122 
-1 -1 1:0.7891053 2:-268.1851 
-1 -0.80002368979674365 1:1.2857032 2:-773.94016 
-1 -0.97236245204643812 1:1.0465471 2:-376.82342 
-1 -1 1:1.1102583 2:-391.91038 
-1 -1 1:0.9940124 2:-577.47314 
-1 -1 1:1.3879381 2:-880.96023 
-1 -1 1:1.0413539 2:-554.78004 
-1 -1 1:1.2160499 2:-694.85586 
-1 -1 1:0.8696808 2:-153.42999 
-1 -1 1:0.594859 2:179.61097 
-1 -1 1:0.8602465 2:-477.58384 
-1 -1 1:1.3369293 2:-1001.8033 
-1 -0.77655453536201724 1:1.5504619 2:-841.48974 
-1 -1 1:0.5253863 2:-219.56832 
-1 -1 1:1.5200072 2:-823.10324 
-1 -1 1:0.3826249 2:79.460782 
-1 -1 1:0.9254797 2:-531.65291 
-1 -1 1:0.6602064 2:-348.76082 
-1 -1 1:1.2552668 2:-604.25449 
-1 -1 1:0.6281629 2:-196.01803 
-0.98464454342870666 -0.61327073274416011 1:-0.1391869 2:185.96348 
-0.63983117793706978 -0.27640812353780908 1:1.500079 2:-840.77142 
-1 -0.9535307259200454 1:1.5612297 2:-838.8149 
-1 -1 1:0.7210283 2:-170.13837 
-1 -1 1:1.0566982 2:-443.21945 
-1 -1 1:0.9523433 2:-373.60141 
-1 -1 1:1.3448073 2:-777.10118 
-1 -1 1:1.7777752 2:-1039.8749 
-1 -1 1:0.1544374 2:141.73193 
-1 -1 1:0.9715856 2:-563.62068 
-1 -1 1:0.5066729 2:-277.09071 
-1 -1 1:1.312586 2:-917.93896 
-1 -1 1:1.2552925 2:-713.28319 
-1 -1 1:1.1215334 2:-536.7398 
